-0.19794844090938568
0.41558200120925903
0.33433258533477783
-0.11792625486850739
0.41823166608810425
-0.5758705735206604
-0.8425092101097107
-0.09432832896709442
-0.8997656106948853
-0.05117807909846306
-0.17060500383377075
0.25708040595054626
-0.028067726641893387
0.7616124153137207
0.09074899554252625
0.22266046702861786
-0.34229403734207153
0.6660820841789246
0.3808152377605438
0.5571029186248779
-0.3202119767665863
0.5063285231590271
0.15403179824352264
0.6548702120780945
0.06735257059335709
-0.33027535676956177
-0.21377494931221008
0.8806899189949036
0.4581114649772644
-1.0316364765167236
0.5757467150688171
0.7214797735214233
-0.47136199474334717
0.32846811413764954
0.005873783957213163
0.06681188941001892
0.34339070320129395
0.3773052990436554
0.3677568733692169
0.07401683181524277
0.3476623296737671
-0.9075782895088196
-0.29267218708992004
0.4652986526489258
-0.19886742532253265
-0.5500786304473877
-0.38241371512413025
-0.03708472102880478
-0.1458440124988556
0.709868848323822
